<?xml version="1.0"?>
<opencv_storage>
<cascade>
  <stageType>BOOST</stageType>
  <featureType>HAAR</featureType>
  <height>40</height>
  <width>40</width>
  <stageParams>
    <boostType>GAB</boostType>
    <minHitRate>9.9900001287460327e-01</minHitRate>
    <maxFalseAlarm>5.0000000000000000e-01</maxFalseAlarm>
    <weightTrimRate>9.4999999999999996e-01</weightTrimRate>
    <maxDepth>1</maxDepth>
    <maxWeakCount>100</maxWeakCount></stageParams>
  <featureParams>
    <maxCatCount>0</maxCatCount>
    <featSize>1</featSize>
    <mode>ALL</mode></featureParams>
  <stageNum>13</stageNum>
  <stages>
    <!-- stage 0 -->
    <_>
      <maxWeakCount>8</maxWeakCount>
      <stageThreshold>-1.2293906211853027e+00</stageThreshold>
      <weakClassifiers>
        <_>
          <internalNodes>
            0 -1 107 2.7697926387190819e-02</internalNodes>
          <leafValues>
            -7.2133171558380127e-01 3.8011696934700012e-01</leafValues></_>
        <_>
          <internalNodes>
            0 -1 82 -1.6664956638123840e-04</internalNodes>
          <leafValues>
            4.7470605373382568e-01 -4.0672084689140320e-01</leafValues></_>
        <_>
          <internalNodes>
            0 -1 151 -1.7016855417750776e-04</internalNodes>
          <leafValues>
            4.6911320090293884e-01 -3.6212828755378723e-01</leafValues></_>
        <_>
          <internalNodes>
            0 -1 76 4.2671831324696541e-03</internalNodes>
          <leafValues>
            -2.9704058170318604e-01 5.4926818609237671e-01</leafValues></_>
        <_>
          <internalNodes>
            0 -1 14 3.7015015259385109e-03</internalNodes>
          <leafValues>
            -2.5885647535324097e-01 5.8816885948181152e-01</leafValues></_>
        <_>
          <internalNodes>
            0 -1 223 2.3804886732250452e-03</internalNodes>
          <leafValues>
            -2.1708831191062927e-01 6.4011323451995850e-01</leafValues></_>
        <_>
          <internalNodes>
            0 -1 75 5.8686472475528717e-03</internalNodes>
          <leafValues>
            -3.3906006813049316e-01 3.9933061599731445e-01</leafValues></_>
        <_>
          <internalNodes>
            0 -1 219 -1.3355764094740152e-03</internalNodes>
          <leafValues>
            6.5109604597091675e-01 -1.9679649174213409e-01</leafValues></_></weakClassifiers></_>
    <!-- stage 1 -->
    <_>
      <maxWeakCount>13</maxWeakCount>
      <stageThreshold>-1.2546979188919067e+00</stageThreshold>
      <weakClassifiers>
        <_>
          <internalNodes>
            0 -1 58 9.4014257192611694e-02</internalNodes>
          <leafValues>
            -6.8421053886413574e-01 1.2187500298023224e-01</leafValues></_>
        <_>
          <internalNodes>
            0 -1 2 1.8006044626235962e-01</internalNodes>
          <leafValues>
            1.0015765577554703e-01 -8.4430634975433350e-01</leafValues></_>
        <_>
          <internalNodes>
            0 -1 6 -2.5246906280517578e-01</internalNodes>
          <leafValues>
            -8.1309187412261963e-01 1.4079996943473816e-01</leafValues></_>
        <_>
          <internalNodes>
            0 -1 92 2.3858905769884586e-03</internalNodes>
          <leafValues>
            -3.0635330080986023e-01 4.0730845928192139e-01</leafValues></_>
        <_>
          <internalNodes>
            0 -1 222 -2.9053236357867718e-03</internalNodes>
          <leafValues>
            5.8290445804595947e-01 -1.9570362567901611e-01</leafValues></_>
        <_>
          <internalNodes>
            0 -1 27 2.1828673779964447e-03</internalNodes>
          <leafValues>
            -2.0412829518318176e-01 5.9886091947555542e-01</leafValues></_>
        <_>
          <internalNodes>
            0 -1 131 1.6254123765975237e-03</internalNodes>
          <leafValues>
            -4.8334234952926636e-01 2.9452818632125854e-01</leafValues></_>
        <_>
          <internalNodes>
            0 -1 115 -1.7113466747105122e-03</internalNodes>
          <leafValues>
            7.1474593877792358e-01 -1.4796100556850433e-01</leafValues></_>
        <_>
          <internalNodes>
            0 -1 224 -3.9330609142780304e-03</internalNodes>
          <leafValues>
            5.7640045881271362e-01 -1.7540304362773895e-01</leafValues></_>
        <_>
          <internalNodes>
            0 -1 110 3.8374862633645535e-03</internalNodes>
          <leafValues>
            -1.6539590060710907e-01 5.6749844551086426e-01</leafValues></_>
        <_>
          <internalNodes>
            0 -1 13 -9.4102055300027132e-04</internalNodes>
          <leafValues>
            7.8631198406219482e-01 -1.3464915752410889e-01</leafValues></_>
        <_>
          <internalNodes>
            0 -1 106 -4.1489712893962860e-03</internalNodes>
          <leafValues>
            3.3575734496116638e-01 -3.1069582700729370e-01</leafValues></_>
        <_>
          <internalNodes>
            0 -1 221 4.6470947563648224e-03</internalNodes>
          <leafValues>
            -1.7934475839138031e-01 6.1581927537918091e-01</leafValues></_></weakClassifiers></_>
    <!-- stage 2 -->
    <_>
      <maxWeakCount>18</maxWeakCount>
      <stageThreshold>-1.1439243555068970e+00</stageThreshold>
      <weakClassifiers>
        <_>
          <internalNodes>
            0 -1 85 4.5982044190168381e-02</internalNodes>
          <leafValues>
            -6.3579279184341431e-01 2.1834060549736023e-02</leafValues></_>
        <_>
          <internalNodes>
            0 -1 7 1.6892175190150738e-03</internalNodes>
          <leafValues>
            -1.9772799313068390e-01 5.5516171455383301e-01</leafValues></_>
        <_>
          <internalNodes>
            0 -1 8 -1.2640154454857111e-03</internalNodes>
          <leafValues>
            4.9806010723114014e-01 -1.8869762122631073e-01</leafValues></_>
        <_>
          <internalNodes>
            0 -1 127 -2.3344827350229025e-03</internalNodes>
          <leafValues>
            5.0448477268218994e-01 -1.7108641564846039e-01</leafValues></_>
        <_>
          <internalNodes>
            0 -1 109 -5.6082047522068024e-03</internalNodes>
          <leafValues>
            6.9028502702713013e-01 -1.0071235895156860e-01</leafValues></_>
        <_>
          <internalNodes>
            0 -1 97 -1.1285590007901192e-03</internalNodes>
          <leafValues>
            3.3693054318428040e-01 -2.3604559898376465e-01</leafValues></_>
        <_>
          <internalNodes>
            0 -1 98 -5.1034926436841488e-03</internalNodes>
          <leafValues>
            5.6207633018493652e-01 -1.4301775395870209e-01</leafValues></_>
        <_>
          <internalNodes>
            0 -1 149 -5.0103745888918638e-04</internalNodes>
          <leafValues>
            4.8453313112258911e-01 -1.3038818538188934e-01</leafValues></_>
        <_>
          <internalNodes>
            0 -1 35 3.7428704090416431e-03</internalNodes>
          <leafValues>
            -1.4306631684303284e-01 6.2265026569366455e-01</leafValues></_>
        <_>
          <internalNodes>
            0 -1 23 -3.8628864567726851e-03</internalNodes>
          <leafValues>
            5.2412587404251099e-01 -2.0551136136054993e-01</leafValues></_>
        <_>
          <internalNodes>
            0 -1 202 3.3097290433943272e-03</internalNodes>
          <leafValues>
            -1.0623268038034439e-01 5.9850323200225830e-01</leafValues></_>
        <_>
          <internalNodes>
            0 -1 230 1.0385474190115929e-02</internalNodes>
          <leafValues>
            -1.5639862418174744e-01 5.3200745582580566e-01</leafValues></_>
        <_>
          <internalNodes>
            0 -1 108 2.9638145118951797e-02</internalNodes>
          <leafValues>
            -3.6576363444328308e-01 2.8132838010787964e-01</leafValues></_>
        <_>
          <internalNodes>
            0 -1 89 -8.7774693383835256e-05</internalNodes>
          <leafValues>
            3.1704416871070862e-01 -3.0075091123580933e-01</leafValues></_>
        <_>
          <internalNodes>
            0 -1 190 -1.0343582835048437e-04</internalNodes>
          <leafValues>
            -4.5483025908470154e-01 1.8516638875007629e-01</leafValues></_>
        <_>
          <internalNodes>
            0 -1 239 1.6417149454355240e-03</internalNodes>
          <leafValues>
            -1.7756116390228271e-01 5.5147230625152588e-01</leafValues></_>
        <_>
          <internalNodes>
            0 -1 201 4.4050539145246148e-05</internalNodes>
          <leafValues>
            2.3551149666309357e-01 -4.2174008488655090e-01</leafValues></_>
        <_>
          <internalNodes>
            0 -1 42 -8.9930556714534760e-03</internalNodes>
          <leafValues>
            5.2360993623733521e-01 -1.9084849953651428e-01</leafValues></_></weakClassifiers></_>
    <!-- stage 3 -->
    <_>
      <maxWeakCount>16</maxWeakCount>
      <stageThreshold>-1.4759197235107422e+00</stageThreshold>
      <weakClassifiers>
        <_>
          <internalNodes>
            0 -1 64 1.6892325878143311e-01</internalNodes>
          <leafValues>
            -5.3601956367492676e-01 9.7029700875282288e-02</leafValues></_>
        <_>
          <internalNodes>
            0 -1 196 1.7110409680753946e-04</internalNodes>
          <leafValues>
            1.0555849224328995e-01 -6.3697576522827148e-01</leafValues></_>
        <_>
          <internalNodes>
            0 -1 215 -1.1403570533730090e-04</internalNodes>
          <leafValues>
            -5.0348639488220215e-01 1.5002866089344025e-01</leafValues></_>
        <_>
          <internalNodes>
            0 -1 19 -9.8358355462551117e-03</internalNodes>
          <leafValues>
            5.0302821397781372e-01 -1.5941423177719116e-01</leafValues></_>
        <_>
          <internalNodes>
            0 -1 196 -1.4240156451705843e-04</internalNodes>
          <leafValues>
            -4.5673561096191406e-01 2.1967487037181854e-01</leafValues></_>
        <_>
          <internalNodes>
            0 -1 44 -1.2192803114885464e-04</internalNodes>
          <leafValues>
            -5.5596852302551270e-01 8.3192497491836548e-02</leafValues></_>
        <_>
          <internalNodes>
            0 -1 121 -4.9656694754958153e-03</internalNodes>
          <leafValues>
            -8.9210158586502075e-01 1.2383712828159332e-01</leafValues></_>
        <_>
          <internalNodes>
            0 -1 167 -8.4087674622423947e-05</internalNodes>
          <leafValues>
            2.9134380817413330e-01 -2.6132103800773621e-01</leafValues></_>
        <_>
          <internalNodes>
            0 -1 165 2.6777028106153011e-03</internalNodes>
          <leafValues>
            -3.0303055047988892e-01 3.0595698952674866e-01</leafValues></_>
        <_>
          <internalNodes>
            0 -1 200 8.4147606685291976e-05</internalNodes>
          <leafValues>
            1.6382163763046265e-01 -4.5920199155807495e-01</leafValues></_>
        <_>
          <internalNodes>
            0 -1 225 1.2690114090219140e-04</internalNodes>
          <leafValues>
            1.1114857345819473e-01 -5.8306437730789185e-01</leafValues></_>
        <_>
          <internalNodes>
            0 -1 225 -1.0167575965169817e-04</internalNodes>
          <leafValues>
            -5.9753870964050293e-01 1.6409724950790405e-01</leafValues></_>
        <_>
          <internalNodes>
            0 -1 68 -7.9021148849278688e-04</internalNodes>
          <leafValues>
            3.5698541998863220e-01 -2.4100440740585327e-01</leafValues></_>
        <_>
          <internalNodes>
            0 -1 49 4.1921422816812992e-03</internalNodes>
          <leafValues>
            -1.4195682108402252e-01 5.1360392570495605e-01</leafValues></_>
        <_>
          <internalNodes>
            0 -1 22 7.0541584864258766e-03</internalNodes>
          <leafValues>
            -1.4490716159343719e-01 5.2469390630722046e-01</leafValues></_>
        <_>
          <internalNodes>
            0 -1 57 4.7363550402224064e-03</internalNodes>
          <leafValues>
            -1.3596212863922119e-01 5.4376584291458130e-01</leafValues></_></weakClassifiers></_>
    <!-- stage 4 -->
    <_>
      <maxWeakCount>15</maxWeakCount>
      <stageThreshold>-1.4728804826736450e+00</stageThreshold>
      <weakClassifiers>
        <_>
          <internalNodes>
            0 -1 191 1.2793290079571307e-04</internalNodes>
          <leafValues>
            -1.1957672238349915e-01 -7.3087072372436523e-01</leafValues></_>
        <_>
          <internalNodes>
            0 -1 232 9.5577452157158405e-05</internalNodes>
          <leafValues>
            1.2968568503856659e-01 -5.8659505844116211e-01</leafValues></_>
        <_>
          <internalNodes>
            0 -1 111 -1.9961934536695480e-02</internalNodes>
          <leafValues>
            -8.7279015779495239e-01 1.2726612389087677e-01</leafValues></_>
        <_>
          <internalNodes>
            0 -1 201 -5.7890421885531396e-05</internalNodes>
          <leafValues>
            -4.9936288595199585e-01 1.7992447316646576e-01</leafValues></_>
        <_>
          <internalNodes>
            0 -1 181 7.3961506132036448e-05</internalNodes>
          <leafValues>
            1.9229650497436523e-01 -5.3125923871994019e-01</leafValues></_>
        <_>
          <internalNodes>
            0 -1 66 3.6753565073013306e-02</internalNodes>
          <leafValues>
            -4.2201113700866699e-01 2.3169861733913422e-01</leafValues></_>
        <_>
          <internalNodes>
            0 -1 102 6.2476770835928619e-05</internalNodes>
          <leafValues>
            1.9935037195682526e-01 -4.5974653959274292e-01</leafValues></_>
        <_>
          <internalNodes>
            0 -1 54 3.5114993806928396e-05</internalNodes>
          <leafValues>
            2.1383766829967499e-01 -4.3506044149398804e-01</leafValues></_>
        <_>
          <internalNodes>
            0 -1 216 -1.4024542644619942e-02</internalNodes>
          <leafValues>
            5.9713840484619141e-01 -1.5949875116348267e-01</leafValues></_>
        <_>
          <internalNodes>
            0 -1 31 9.8748743766918778e-05</internalNodes>
          <leafValues>
            1.6684447228908539e-01 -5.6816488504409790e-01</leafValues></_>
        <_>
          <internalNodes>
            0 -1 84 -1.2053328828187659e-04</internalNodes>
          <leafValues>
            -5.7586580514907837e-01 1.6384959220886230e-01</leafValues></_>
        <_>
          <internalNodes>
            0 -1 182 1.0302064038114622e-04</internalNodes>
          <leafValues>
            1.5488608181476593e-01 -5.9592479467391968e-01</leafValues></_>
        <_>
          <internalNodes>
            0 -1 210 2.2832072863820940e-04</internalNodes>
          <leafValues>
            1.7378734052181244e-01 -5.2806812524795532e-01</leafValues></_>
        <_>
          <internalNodes>
            0 -1 188 -8.8567016064189374e-05</internalNodes>
          <leafValues>
            -5.5168646574020386e-01 1.5677899122238159e-01</leafValues></_>
        <_>
          <internalNodes>
            0 -1 71 6.5381100284866989e-05</internalNodes>
          <leafValues>
            1.8370452523231506e-01 -4.4328445196151733e-01</leafValues></_></weakClassifiers></_>
    <!-- stage 5 -->
    <_>
      <maxWeakCount>16</maxWeakCount>
      <stageThreshold>-1.1897234916687012e+00</stageThreshold>
      <weakClassifiers>
        <_>
          <internalNodes>
            0 -1 74 1.5568831935524940e-02</internalNodes>
          <leafValues>
            -5.4977029561996460e-01 -4.6199701726436615e-02</leafValues></_>
        <_>
          <internalNodes>
            0 -1 214 9.2208108981139958e-05</internalNodes>
          <leafValues>
            1.5585838258266449e-01 -4.6092960238456726e-01</leafValues></_>
        <_>
          <internalNodes>
            0 -1 184 -8.5822583059780300e-05</internalNodes>
          <leafValues>
            -5.1242011785507202e-01 1.5343618392944336e-01</leafValues></_>
        <_>
          <internalNodes>
            0 -1 214 -8.1988619058392942e-05</internalNodes>
          <leafValues>
            -4.2462673783302307e-01 2.0059436559677124e-01</leafValues></_>
        <_>
          <internalNodes>
            0 -1 237 2.4467837065458298e-03</internalNodes>
          <leafValues>
            -1.1611730605363846e-01 7.2326701879501343e-01</leafValues></_>
        <_>
          <internalNodes>
            0 -1 60 8.5200124885886908e-05</internalNodes>
          <leafValues>
            1.6471365094184875e-01 -4.6129590272903442e-01</leafValues></_>
        <_>
          <internalNodes>
            0 -1 195 9.2052272520959377e-05</internalNodes>
          <leafValues>
            1.5925630927085876e-01 -4.9588179588317871e-01</leafValues></_>
        <_>
          <internalNodes>
            0 -1 63 1.0295094398315996e-04</internalNodes>
          <leafValues>
            1.3315379619598389e-01 -5.3749448060989380e-01</leafValues></_>
        <_>
          <internalNodes>
            0 -1 166 -6.1488104984164238e-03</internalNodes>
          <leafValues>
            -6.9328939914703369e-01 9.0862803161144257e-02</leafValues></_>
        <_>
          <internalNodes>
            0 -1 129 3.9792030293028802e-05</internalNodes>
          <leafValues>
            2.3497541248798370e-01 -3.1761947274208069e-01</leafValues></_>
        <_>
          <internalNodes>
            0 -1 69 4.9199098721146584e-03</internalNodes>
          <leafValues>
            -3.6450767517089844e-01 2.0610080659389496e-01</leafValues></_>
        <_>
          <internalNodes>
            0 -1 203 -9.4610048108734190e-05</internalNodes>
          <leafValues>
            -5.8941143751144409e-01 1.3836948573589325e-01</leafValues></_>
        <_>
          <internalNodes>
            0 -1 31 -8.5704959928989410e-05</internalNodes>
          <leafValues>
            -5.2426677942276001e-01 1.3732439279556274e-01</leafValues></_>
        <_>
          <internalNodes>
            0 -1 18 -3.9443252608180046e-03</internalNodes>
          <leafValues>
            4.9008339643478394e-01 -1.7578133940696716e-01</leafValues></_>
        <_>
          <internalNodes>
            0 -1 41 -1.1982345022261143e-02</internalNodes>
          <leafValues>
            6.2277966737747192e-01 -1.2160558998584747e-01</leafValues></_>
        <_>
          <internalNodes>
            0 -1 140 1.8159832805395126e-02</internalNodes>
          <leafValues>
            1.2873977422714233e-01 -6.5982794761657715e-01</leafValues></_></weakClassifiers></_>
    <!-- stage 6 -->
    <_>
      <maxWeakCount>20</maxWeakCount>
      <stageThreshold>-1.3048048019409180e+00</stageThreshold>
      <weakClassifiers>
        <_>
          <internalNodes>
            0 -1 135 -7.6944455504417419e-03</internalNodes>
          <leafValues>
            7.4157305061817169e-02 -4.8122867941856384e-01</leafValues></_>
        <_>
          <internalNodes>
            0 -1 117 -2.1147701772861183e-05</internalNodes>
          <leafValues>
            2.7068367600440979e-01 -2.7871346473693848e-01</leafValues></_>
        <_>
          <internalNodes>
            0 -1 77 5.4399043321609497e-02</internalNodes>
          <leafValues>
            6.5025836229324341e-02 -9.0260553359985352e-01</leafValues></_>
        <_>
          <internalNodes>
            0 -1 101 6.1395507305860519e-02</internalNodes>
          <leafValues>
            9.5376200973987579e-02 -7.7367067337036133e-01</leafValues></_>
        <_>
          <internalNodes>
            0 -1 137 -4.3155578896403313e-03</internalNodes>
          <leafValues>
            2.3583610355854034e-01 -2.8240868449211121e-01</leafValues></_>
        <_>
          <internalNodes>
            0 -1 193 -8.5339676588773727e-03</internalNodes>
          <leafValues>
            3.5509973764419556e-01 -1.6802780330181122e-01</leafValues></_>
        <_>
          <internalNodes>
            0 -1 50 2.1310490556061268e-03</internalNodes>
          <leafValues>
            -1.4009469747543335e-01 4.7804439067840576e-01</leafValues></_>
        <_>
          <internalNodes>
            0 -1 29 -8.6860003648325801e-04</internalNodes>
          <leafValues>
            8.1960976123809814e-01 -6.1695259064435959e-02</leafValues></_>
        <_>
          <internalNodes>
            0 -1 24 -2.0460313186049461e-02</internalNodes>
          <leafValues>
            5.2120089530944824e-01 -1.0669402033090591e-01</leafValues></_>
        <_>
          <internalNodes>
            0 -1 141 -1.0502657460165210e-05</internalNodes>
          <leafValues>
            2.4894796311855316e-01 -2.3433788120746613e-01</leafValues></_>
        <_>
          <internalNodes>
            0 -1 205 1.0137996287085116e-04</internalNodes>
          <leafValues>
            1.4600665867328644e-01 -5.2018523216247559e-01</leafValues></_>
        <_>
          <internalNodes>
            0 -1 168 -3.7216055206954479e-03</internalNodes>
          <leafValues>
            4.7752702236175537e-01 -1.4870446920394897e-01</leafValues></_>
        <_>
          <internalNodes>
            0 -1 59 3.1820354051887989e-03</internalNodes>
          <leafValues>
            -1.7101775109767914e-01 3.4227010607719421e-01</leafValues></_>
        <_>
          <internalNodes>
            0 -1 152 -1.7756142187863588e-03</internalNodes>
          <leafValues>
            -9.2746967077255249e-01 6.2017295509576797e-02</leafValues></_>
        <_>
          <internalNodes>
            0 -1 10 -6.9808255648240447e-04</internalNodes>
          <leafValues>
            6.7927581071853638e-01 -1.1480075865983963e-01</leafValues></_>
        <_>
          <internalNodes>
            0 -1 67 1.2151566334068775e-02</internalNodes>
          <leafValues>
            -2.7847066521644592e-01 2.2769093513488770e-01</leafValues></_>
        <_>
          <internalNodes>
            0 -1 155 4.0406361222267151e-05</internalNodes>
          <leafValues>
            1.8630601465702057e-01 -3.4569573402404785e-01</leafValues></_>
        <_>
          <internalNodes>
            0 -1 187 3.8811878766864538e-04</internalNodes>
          <leafValues>
            1.2545499205589294e-01 -4.9756732583045959e-01</leafValues></_>
        <_>
          <internalNodes>
            0 -1 16 2.5804745033383369e-02</internalNodes>
          <leafValues>
            -1.4104370772838593e-01 4.9510535597801208e-01</leafValues></_>
        <_>
          <internalNodes>
            0 -1 228 -9.3880842905491590e-04</internalNodes>
          <leafValues>
            6.1903685331344604e-01 -1.0768420249223709e-01</leafValues></_></weakClassifiers></_>
    <!-- stage 7 -->
    <_>
      <maxWeakCount>15</maxWeakCount>
      <stageThreshold>-1.1718598604202271e+00</stageThreshold>
      <weakClassifiers>
        <_>
          <internalNodes>
            0 -1 160 -3.1068935641087592e-05</internalNodes>
          <leafValues>
            4.8473969101905823e-02 -5.4367667436599731e-01</leafValues></_>
        <_>
          <internalNodes>
            0 -1 148 -9.1819085355382413e-05</internalNodes>
          <leafValues>
            4.1350412368774414e-01 -2.1896597743034363e-01</leafValues></_>
        <_>
          <internalNodes>
            0 -1 138 -2.4585227947682142e-04</internalNodes>
          <leafValues>
            3.0587825179100037e-01 -2.6889330148696899e-01</leafValues></_>
        <_>
          <internalNodes>
            0 -1 91 -7.5052492320537567e-04</internalNodes>
          <leafValues>
            5.1082658767700195e-01 -1.5839329361915588e-01</leafValues></_>
        <_>
          <internalNodes>
            0 -1 90 -1.5173284919001162e-04</internalNodes>
          <leafValues>
            3.0696278810501099e-01 -2.8449746966362000e-01</leafValues></_>
        <_>
          <internalNodes>
            0 -1 73 -2.0393382012844086e-01</internalNodes>
          <leafValues>
            -7.9580205678939819e-01 1.4943362772464752e-01</leafValues></_>
        <_>
          <internalNodes>
            0 -1 128 -1.0765425395220518e-03</internalNodes>
          <leafValues>
            4.3750876188278198e-01 -2.0842182636260986e-01</leafValues></_>
        <_>
          <internalNodes>
            0 -1 178 -2.0821322323172353e-05</internalNodes>
          <leafValues>
            3.0451169610023499e-01 -2.9828688502311707e-01</leafValues></_>
        <_>
          <internalNodes>
            0 -1 9 -4.1445908136665821e-03</internalNodes>
          <leafValues>
            4.9998420476913452e-01 -1.8911762535572052e-01</leafValues></_>
        <_>
          <internalNodes>
            0 -1 157 -2.6621818542480469e-03</internalNodes>
          <leafValues>
            5.5556285381317139e-01 -1.4898192882537842e-01</leafValues></_>
        <_>
          <internalNodes>
            0 -1 26 -5.2577757742255926e-04</internalNodes>
          <leafValues>
            6.5549391508102417e-01 -1.2436015158891678e-01</leafValues></_>
        <_>
          <internalNodes>
            0 -1 158 -7.1922564529813826e-05</internalNodes>
          <leafValues>
            3.9069876074790955e-01 -1.9425804913043976e-01</leafValues></_>
        <_>
          <internalNodes>
            0 -1 220 1.3160405214875937e-03</internalNodes>
          <leafValues>
            -1.8757838010787964e-01 4.2731755971908569e-01</leafValues></_>
        <_>
          <internalNodes>
            0 -1 1 5.8288546279072762e-03</internalNodes>
          <leafValues>
            -1.4449971914291382e-01 4.9592462182044983e-01</leafValues></_>
        <_>
          <internalNodes>
            0 -1 144 -1.3280848506838083e-03</internalNodes>
          <leafValues>
            4.8202857375144958e-01 -1.4986911416053772e-01</leafValues></_></weakClassifiers></_>
    <!-- stage 8 -->
    <_>
      <maxWeakCount>19</maxWeakCount>
      <stageThreshold>-1.2099188566207886e+00</stageThreshold>
      <weakClassifiers>
        <_>
          <internalNodes>
            0 -1 52 8.2366004586219788e-02</internalNodes>
          <leafValues>
            -5.5248618125915527e-01 1.6666667535901070e-02</leafValues></_>
        <_>
          <internalNodes>
            0 -1 124 -1.0152862159884535e-05</internalNodes>
          <leafValues>
            2.5995072722434998e-01 -3.0237400531768799e-01</leafValues></_>
        <_>
          <internalNodes>
            0 -1 93 -6.0120178386569023e-03</internalNodes>
          <leafValues>
            -8.7193173170089722e-01 7.5846292078495026e-02</leafValues></_>
        <_>
          <internalNodes>
            0 -1 112 -2.8153695166110992e-03</internalNodes>
          <leafValues>
            -8.8223320245742798e-01 7.8351095318794250e-02</leafValues></_>
        <_>
          <internalNodes>
            0 -1 17 -2.5310952216386795e-02</internalNodes>
          <leafValues>
            5.0365972518920898e-01 -1.3268946111202240e-01</leafValues></_>
        <_>
          <internalNodes>
            0 -1 212 4.4326148927211761e-03</internalNodes>
          <leafValues>
            -1.9119834899902344e-01 3.5170698165893555e-01</leafValues></_>
        <_>
          <internalNodes>
            0 -1 145 1.9797433167695999e-02</internalNodes>
          <leafValues>
            -1.4315818250179291e-01 5.0571656227111816e-01</leafValues></_>
        <_>
          <internalNodes>
            0 -1 136 1.5881219878792763e-02</internalNodes>
          <leafValues>
            6.8392947316169739e-02 -1.</leafValues></_>
        <_>
          <internalNodes>
            0 -1 180 5.5749289458617568e-04</internalNodes>
          <leafValues>
            1.0792239755392075e-01 -5.8944791555404663e-01</leafValues></_>
        <_>
          <internalNodes>
            0 -1 161 -1.0187187399424147e-05</internalNodes>
          <leafValues>
            2.2143846750259399e-01 -2.9514476656913757e-01</leafValues></_>
        <_>
          <internalNodes>
            0 -1 56 -6.4425345044583082e-05</internalNodes>
          <leafValues>
            -4.9210298061370850e-01 1.1101914197206497e-01</leafValues></_>
        <_>
          <internalNodes>
            0 -1 28 -4.9703760305419564e-04</internalNodes>
          <leafValues>
            3.0487352609634399e-01 -2.0908714830875397e-01</leafValues></_>
        <_>
          <internalNodes>
            0 -1 61 2.4365598801523447e-04</internalNodes>
          <leafValues>
            1.0504705458879471e-01 -5.0958615541458130e-01</leafValues></_>
        <_>
          <internalNodes>
            0 -1 95 -2.1864914742764086e-05</internalNodes>
          <leafValues>
            2.4499833583831787e-01 -2.4525244534015656e-01</leafValues></_>
        <_>
          <internalNodes>
            0 -1 48 5.6750074028968811e-02</internalNodes>
          <leafValues>
            -3.3817884325981140e-01 1.7732690274715424e-01</leafValues></_>
        <_>
          <internalNodes>
            0 -1 70 1.9662471488118172e-02</internalNodes>
          <leafValues>
            9.4880744814872742e-02 -7.0192718505859375e-01</leafValues></_>
        <_>
          <internalNodes>
            0 -1 118 -1.9221358001232147e-02</internalNodes>
          <leafValues>
            -9.7913491725921631e-01 5.1850441843271255e-02</leafValues></_>
        <_>
          <internalNodes>
            0 -1 56 1.3623849372379482e-04</internalNodes>
          <leafValues>
            8.9983701705932617e-02 -5.9982508420944214e-01</leafValues></_>
        <_>
          <internalNodes>
            0 -1 218 -8.0604404211044312e-03</internalNodes>
          <leafValues>
            5.2120548486709595e-01 -1.4596803486347198e-01</leafValues></_></weakClassifiers></_>
    <!-- stage 9 -->
    <_>
      <maxWeakCount>22</maxWeakCount>
      <stageThreshold>-1.2856262922286987e+00</stageThreshold>
      <weakClassifiers>
        <_>
          <internalNodes>
            0 -1 236 -1.1580276768654585e-03</internalNodes>
          <leafValues>
            2.2656250000000000e-01 -4.1947564482688904e-01</leafValues></_>
        <_>
          <internalNodes>
            0 -1 234 1.5843982109799981e-03</internalNodes>
          <leafValues>
            -1.5462948381900787e-01 5.2028626203536987e-01</leafValues></_>
        <_>
          <internalNodes>
            0 -1 4 -1.4476294163614511e-03</internalNodes>
          <leafValues>
            4.3834847211837769e-01 -1.4890226721763611e-01</leafValues></_>
        <_>
          <internalNodes>
            0 -1 5 7.9583108890801668e-04</internalNodes>
          <leafValues>
            -1.7666904628276825e-01 3.4189009666442871e-01</leafValues></_>
        <_>
          <internalNodes>
            0 -1 174 -1.0831370673258789e-05</internalNodes>
          <leafValues>
            2.2805993258953094e-01 -2.6191940903663635e-01</leafValues></_>
        <_>
          <internalNodes>
            0 -1 206 -2.1505714394152164e-03</internalNodes>
          <leafValues>
            3.5650587081909180e-01 -1.6169250011444092e-01</leafValues></_>
        <_>
          <internalNodes>
            0 -1 194 9.1283582150936127e-04</internalNodes>
          <leafValues>
            -1.8604345619678497e-01 3.0996766686439514e-01</leafValues></_>
        <_>
          <internalNodes>
            0 -1 172 -8.0553665757179260e-03</internalNodes>
          <leafValues>
            5.8159625530242920e-01 -9.3597359955310822e-02</leafValues></_>
        <_>
          <internalNodes>
            0 -1 175 -2.8018108569085598e-03</internalNodes>
          <leafValues>
            5.2699071168899536e-01 -1.2046100199222565e-01</leafValues></_>
        <_>
          <internalNodes>
            0 -1 79 -9.7608380019664764e-04</internalNodes>
          <leafValues>
            3.1753608584403992e-01 -1.9955383241176605e-01</leafValues></_>
        <_>
          <internalNodes>
            0 -1 114 1.7030064191203564e-04</internalNodes>
          <leafValues>
            -2.1453291177749634e-01 3.1870546936988831e-01</leafValues></_>
        <_>
          <internalNodes>
            0 -1 20 9.4817188801243901e-04</internalNodes>
          <leafValues>
            -8.3014808595180511e-02 7.4410915374755859e-01</leafValues></_>
        <_>
          <internalNodes>
            0 -1 105 2.1917968115303665e-04</internalNodes>
          <leafValues>
            -1.9308054447174072e-01 2.9532974958419800e-01</leafValues></_>
        <_>
          <internalNodes>
            0 -1 38 -9.9131064489483833e-03</internalNodes>
          <leafValues>
            5.8089041709899902e-01 -1.0302595049142838e-01</leafValues></_>
        <_>
          <internalNodes>
            0 -1 11 -8.5335172479972243e-04</internalNodes>
          <leafValues>
            3.7630724906921387e-01 -1.5317840874195099e-01</leafValues></_>
        <_>
          <internalNodes>
            0 -1 154 -1.0173718692385592e-05</internalNodes>
          <leafValues>
            2.0539154112339020e-01 -2.9024103283882141e-01</leafValues></_>
        <_>
          <internalNodes>
            0 -1 146 3.0368944862857461e-05</internalNodes>
          <leafValues>
            1.9262276589870453e-01 -3.3466696739196777e-01</leafValues></_>
        <_>
          <internalNodes>
            0 -1 204 -7.4168969877064228e-04</internalNodes>
          <leafValues>
            5.1640278100967407e-01 -1.1520195007324219e-01</leafValues></_>
        <_>
          <internalNodes>
            0 -1 25 -3.7276402581483126e-03</internalNodes>
          <leafValues>
            3.7927147746086121e-01 -1.9384242594242096e-01</leafValues></_>
        <_>
          <internalNodes>
            0 -1 164 -3.9191730320453644e-03</internalNodes>
          <leafValues>
            5.9913897514343262e-01 -1.0602729022502899e-01</leafValues></_>
        <_>
          <internalNodes>
            0 -1 104 2.9508803039789200e-02</internalNodes>
          <leafValues>
            8.7276227772235870e-02 -8.0449736118316650e-01</leafValues></_>
        <_>
          <internalNodes>
            0 -1 126 -7.6056021498516202e-05</internalNodes>
          <leafValues>
            3.0501440167427063e-01 -2.1540622413158417e-01</leafValues></_></weakClassifiers></_>
    <!-- stage 10 -->
    <_>
      <maxWeakCount>24</maxWeakCount>
      <stageThreshold>-1.2712131738662720e+00</stageThreshold>
      <weakClassifiers>
        <_>
          <internalNodes>
            0 -1 171 -6.7920051515102386e-03</internalNodes>
          <leafValues>
            2.9545453190803528e-01 -3.8501742482185364e-01</leafValues></_>
        <_>
          <internalNodes>
            0 -1 177 -9.8451455414760858e-06</internalNodes>
          <leafValues>
            2.2277346253395081e-01 -2.7656206488609314e-01</leafValues></_>
        <_>
          <internalNodes>
            0 -1 65 8.2282900810241699e-02</internalNodes>
          <leafValues>
            -2.7123984694480896e-01 2.2291971743106842e-01</leafValues></_>
        <_>
          <internalNodes>
            0 -1 217 -1.1085606820415705e-04</internalNodes>
          <leafValues>
            -4.7552391886711121e-01 1.2447021156549454e-01</leafValues></_>
        <_>
          <internalNodes>
            0 -1 159 6.6439211368560791e-03</internalNodes>
          <leafValues>
            -1.0278915613889694e-01 4.4433870911598206e-01</leafValues></_>
        <_>
          <internalNodes>
            0 -1 173 -3.1115472665987909e-05</internalNodes>
          <leafValues>
            2.5320661067962646e-01 -2.3766790330410004e-01</leafValues></_>
        <_>
          <internalNodes>
            0 -1 125 -1.7246254719793797e-03</internalNodes>
          <leafValues>
            -8.2959675788879395e-01 4.9370311200618744e-02</leafValues></_>
        <_>
          <internalNodes>
            0 -1 55 4.0382284671068192e-02</internalNodes>
          <leafValues>
            -1.1321632564067841e-01 4.7852659225463867e-01</leafValues></_>
        <_>
          <internalNodes>
            0 -1 238 1.1888407170772552e-03</internalNodes>
          <leafValues>
            -1.3621082901954651e-01 3.8529157638549805e-01</leafValues></_>
        <_>
          <internalNodes>
            0 -1 133 -4.0049399831332266e-04</internalNodes>
          <leafValues>
            -6.8705028295516968e-01 8.2627028226852417e-02</leafValues></_>
        <_>
          <internalNodes>
            0 -1 86 4.5468364842236042e-03</internalNodes>
          <leafValues>
            -1.4815759658813477e-01 3.9941403269767761e-01</leafValues></_>
        <_>
          <internalNodes>
            0 -1 185 -3.3015137887559831e-05</internalNodes>
          <leafValues>
            2.3936524987220764e-01 -2.1682640910148621e-01</leafValues></_>
        <_>
          <internalNodes>
            0 -1 36 9.2602279037237167e-03</internalNodes>
          <leafValues>
            -1.6638286411762238e-01 3.5156819224357605e-01</leafValues></_>
        <_>
          <internalNodes>
            0 -1 46 -8.0929156392812729e-03</internalNodes>
          <leafValues>
            4.8910221457481384e-01 -1.1470799148082733e-01</leafValues></_>
        <_>
          <internalNodes>
            0 -1 0 -1.6970309661701322e-04</internalNodes>
          <leafValues>
            -5.8918356895446777e-01 9.5795594155788422e-02</leafValues></_>
        <_>
          <internalNodes>
            0 -1 213 -7.2394323069602251e-04</internalNodes>
          <leafValues>
            2.9358896613121033e-01 -1.8639062345027924e-01</leafValues></_>
        <_>
          <internalNodes>
            0 -1 12 -9.2731253243982792e-04</internalNodes>
          <leafValues>
            5.3726518154144287e-01 -1.0898588597774506e-01</leafValues></_>
        <_>
          <internalNodes>
            0 -1 142 -1.8765700515359640e-03</internalNodes>
          <leafValues>
            -8.8670265674591064e-01 7.9224310815334320e-02</leafValues></_>
        <_>
          <internalNodes>
            0 -1 147 -9.3315134290605783e-04</internalNodes>
          <leafValues>
            3.3733883500099182e-01 -1.8807767331600189e-01</leafValues></_>
        <_>
          <internalNodes>
            0 -1 123 -5.1257526502013206e-04</internalNodes>
          <leafValues>
            3.7826991081237793e-01 -1.5947322547435760e-01</leafValues></_>
        <_>
          <internalNodes>
            0 -1 62 8.6945407092571259e-03</internalNodes>
          <leafValues>
            -1.1649136245250702e-01 5.0272381305694580e-01</leafValues></_>
        <_>
          <internalNodes>
            0 -1 72 1.4774504234082997e-04</internalNodes>
          <leafValues>
            1.4059959352016449e-01 -4.5653349161148071e-01</leafValues></_>
        <_>
          <internalNodes>
            0 -1 83 -9.1179790615569800e-06</internalNodes>
          <leafValues>
            2.6293238997459412e-01 -2.3368521034717560e-01</leafValues></_>
        <_>
          <internalNodes>
            0 -1 40 6.1502947937697172e-04</internalNodes>
          <leafValues>
            -1.6611278057098389e-01 3.8597056269645691e-01</leafValues></_></weakClassifiers></_>
    <!-- stage 11 -->
    <_>
      <maxWeakCount>30</maxWeakCount>
      <stageThreshold>-1.2601046562194824e+00</stageThreshold>
      <weakClassifiers>
        <_>
          <internalNodes>
            0 -1 170 -6.0208924114704132e-03</internalNodes>
          <leafValues>
            -1.4421930909156799e-01 -5.5463916063308716e-01</leafValues></_>
        <_>
          <internalNodes>
            0 -1 37 4.1283354163169861e-02</internalNodes>
          <leafValues>
            8.5903719067573547e-02 -4.3081599473953247e-01</leafValues></_>
        <_>
          <internalNodes>
            0 -1 88 -3.2388474792242050e-02</internalNodes>
          <leafValues>
            -5.7958942651748657e-01 9.4555012881755829e-02</leafValues></_>
        <_>
          <internalNodes>
            0 -1 150 -8.8933911683852784e-06</internalNodes>
          <leafValues>
            2.7478325366973877e-01 -2.1969179809093475e-01</leafValues></_>
        <_>
          <internalNodes>
            0 -1 132 -3.6709211417473853e-04</internalNodes>
          <leafValues>
            2.1180129051208496e-01 -2.4302206933498383e-01</leafValues></_>
        <_>
          <internalNodes>
            0 -1 148 -4.3937041482422501e-05</internalNodes>
          <leafValues>
            3.0177167057991028e-01 -1.7884448170661926e-01</leafValues></_>
        <_>
          <internalNodes>
            0 -1 119 1.3050369918346405e-02</internalNodes>
          <leafValues>
            6.0485556721687317e-02 -6.6390824317932129e-01</leafValues></_>
        <_>
          <internalNodes>
            0 -1 43 9.9423173815011978e-03</internalNodes>
          <leafValues>
            -1.4846500754356384e-01 3.0576723814010620e-01</leafValues></_>
        <_>
          <internalNodes>
            0 -1 33 -1.1531312949955463e-02</internalNodes>
          <leafValues>
            3.9808750152587891e-01 -1.5378879010677338e-01</leafValues></_>
        <_>
          <internalNodes>
            0 -1 15 1.7059422098100185e-03</internalNodes>
          <leafValues>
            -6.6527746617794037e-02 5.6063836812973022e-01</leafValues></_>
        <_>
          <internalNodes>
            0 -1 227 1.3643380952998996e-03</internalNodes>
          <leafValues>
            -7.0303015410900116e-02 6.4579463005065918e-01</leafValues></_>
        <_>
          <internalNodes>
            0 -1 231 -2.5787355843931437e-04</internalNodes>
          <leafValues>
            -7.3292291164398193e-01 7.0009373128414154e-02</leafValues></_>
        <_>
          <internalNodes>
            0 -1 209 2.8336653485894203e-05</internalNodes>
          <leafValues>
            1.2740528583526611e-01 -3.7169715762138367e-01</leafValues></_>
        <_>
          <internalNodes>
            0 -1 197 3.1400769948959351e-03</internalNodes>
          <leafValues>
            8.9618831872940063e-02 -4.9890962243080139e-01</leafValues></_>
        <_>
          <internalNodes>
            0 -1 211 -2.3547506425529718e-03</internalNodes>
          <leafValues>
            3.4763458371162415e-01 -1.2951281666755676e-01</leafValues></_>
        <_>
          <internalNodes>
            0 -1 80 9.2789722839370370e-04</internalNodes>
          <leafValues>
            9.9984101951122284e-02 -5.0286573171615601e-01</leafValues></_>
        <_>
          <internalNodes>
            0 -1 240 -7.1570317959412932e-04</internalNodes>
          <leafValues>
            4.5006969571113586e-01 -1.1972808837890625e-01</leafValues></_>
        <_>
          <internalNodes>
            0 -1 198 1.4636231935583055e-04</internalNodes>
          <leafValues>
            1.3583707809448242e-01 -4.0755191445350647e-01</leafValues></_>
        <_>
          <internalNodes>
            0 -1 39 -2.5737525429576635e-03</internalNodes>
          <leafValues>
            3.4068977832794189e-01 -1.6559854149818420e-01</leafValues></_>
        <_>
          <internalNodes>
            0 -1 122 -3.2699259463697672e-04</internalNodes>
          <leafValues>
            3.0330061912536621e-01 -1.5361854434013367e-01</leafValues></_>
        <_>
          <internalNodes>
            0 -1 32 3.9582499302923679e-03</internalNodes>
          <leafValues>
            -1.4507530629634857e-01 3.3342090249061584e-01</leafValues></_>
        <_>
          <internalNodes>
            0 -1 186 9.4250644906423986e-06</internalNodes>
          <leafValues>
            -2.0016242563724518e-01 2.3478871583938599e-01</leafValues></_>
        <_>
          <internalNodes>
            0 -1 163 -4.9313108320347965e-05</internalNodes>
          <leafValues>
            2.3039533197879791e-01 -2.2931911051273346e-01</leafValues></_>
        <_>
          <internalNodes>
            0 -1 153 1.5023211017251015e-04</internalNodes>
          <leafValues>
            -1.9200533628463745e-01 2.9520341753959656e-01</leafValues></_>
        <_>
          <internalNodes>
            0 -1 233 -1.2788940221071243e-03</internalNodes>
          <leafValues>
            3.5583296418190002e-01 -1.3995535671710968e-01</leafValues></_>
        <_>
          <internalNodes>
            0 -1 229 -1.3125151162967086e-03</internalNodes>
          <leafValues>
            3.4939423203468323e-01 -1.4773768186569214e-01</leafValues></_>
        <_>
          <internalNodes>
            0 -1 226 6.5678788814693689e-04</internalNodes>
          <leafValues>
            -1.8677513301372528e-01 2.7317303419113159e-01</leafValues></_>
        <_>
          <internalNodes>
            0 -1 156 9.2341899289749563e-05</internalNodes>
          <leafValues>
            1.8075093626976013e-01 -2.7727040648460388e-01</leafValues></_>
        <_>
          <internalNodes>
            0 -1 208 1.3745797332376242e-03</internalNodes>
          <leafValues>
            7.2769336402416229e-02 -7.0842885971069336e-01</leafValues></_>
        <_>
          <internalNodes>
            0 -1 87 -3.4752807114273310e-03</internalNodes>
          <leafValues>
            4.0242597460746765e-01 -1.4430186152458191e-01</leafValues></_></weakClassifiers></_>
    <!-- stage 12 -->
    <_>
      <maxWeakCount>32</maxWeakCount>
      <stageThreshold>-1.2086499929428101e+00</stageThreshold>
      <weakClassifiers>
        <_>
          <internalNodes>
            0 -1 143 -2.3527283221483231e-02</internalNodes>
          <leafValues>
            6.1946902424097061e-02 -4.1725888848304749e-01</leafValues></_>
        <_>
          <internalNodes>
            0 -1 53 2.6489155061426573e-05</internalNodes>
          <leafValues>
            1.3126553595066071e-01 -3.0471813678741455e-01</leafValues></_>
        <_>
          <internalNodes>
            0 -1 3 2.4546356871724129e-03</internalNodes>
          <leafValues>
            -9.3553386628627777e-02 4.5124882459640503e-01</leafValues></_>
        <_>
          <internalNodes>
            0 -1 116 -1.6509557608515024e-03</internalNodes>
          <leafValues>
            3.6061280965805054e-01 -1.0637611150741577e-01</leafValues></_>
        <_>
          <internalNodes>
            0 -1 192 2.3173922090791166e-04</internalNodes>
          <leafValues>
            1.1544900387525558e-01 -3.6617380380630493e-01</leafValues></_>
        <_>
          <internalNodes>
            0 -1 100 -6.9084629416465759e-02</internalNodes>
          <leafValues>
            -7.5159853696823120e-01 6.6161997616291046e-02</leafValues></_>
        <_>
          <internalNodes>
            0 -1 120 -1.9285054877400398e-03</internalNodes>
          <leafValues>
            -6.4012116193771362e-01 7.4909634888172150e-02</leafValues></_>
        <_>
          <internalNodes>
            0 -1 169 -6.7690396681427956e-03</internalNodes>
          <leafValues>
            2.8208363056182861e-01 -1.5262368321418762e-01</leafValues></_>
        <_>
          <internalNodes>
            0 -1 94 8.5319136269390583e-04</internalNodes>
          <leafValues>
            -9.9078558385372162e-02 5.2906471490859985e-01</leafValues></_>
        <_>
          <internalNodes>
            0 -1 199 -1.5152918058447540e-04</internalNodes>
          <leafValues>
            -3.3602038025856018e-01 1.2892268598079681e-01</leafValues></_>
        <_>
          <internalNodes>
            0 -1 235 -9.2224671971052885e-04</internalNodes>
          <leafValues>
            3.9259093999862671e-01 -1.1146294325590134e-01</leafValues></_>
        <_>
          <internalNodes>
            0 -1 45 -3.7977710366249084e-02</internalNodes>
          <leafValues>
            4.3416917324066162e-01 -1.0432982444763184e-01</leafValues></_>
        <_>
          <internalNodes>
            0 -1 21 -8.7782237678766251e-03</internalNodes>
          <leafValues>
            3.1787881255149841e-01 -1.3753676414489746e-01</leafValues></_>
        <_>
          <internalNodes>
            0 -1 34 7.4555962346494198e-03</internalNodes>
          <leafValues>
            -1.2376635521650314e-01 3.8637045025825500e-01</leafValues></_>
        <_>
          <internalNodes>
            0 -1 189 5.9511337894946337e-04</internalNodes>
          <leafValues>
            9.0925864875316620e-02 -6.1752516031265259e-01</leafValues></_>
        <_>
          <internalNodes>
            0 -1 96 -1.2276426423341036e-04</internalNodes>
          <leafValues>
            2.3742312192916870e-01 -1.9774508476257324e-01</leafValues></_>
        <_>
          <internalNodes>
            0 -1 139 3.3250488340854645e-03</internalNodes>
          <leafValues>
            -1.3682429492473602e-01 3.8251236081123352e-01</leafValues></_>
        <_>
          <internalNodes>
            0 -1 113 -2.0948838937329128e-05</internalNodes>
          <leafValues>
            2.1254424750804901e-01 -2.3699541389942169e-01</leafValues></_>
        <_>
          <internalNodes>
            0 -1 47 -1.7073329538106918e-02</internalNodes>
          <leafValues>
            3.5991424322128296e-01 -1.3823439180850983e-01</leafValues></_>
        <_>
          <internalNodes>
            0 -1 134 -1.8728757277131081e-04</internalNodes>
          <leafValues>
            -2.9581388831138611e-01 1.7835310101509094e-01</leafValues></_>
        <_>
          <internalNodes>
            0 -1 130 7.3640737682580948e-03</internalNodes>
          <leafValues>
            7.7214777469635010e-02 -6.0606110095977783e-01</leafValues></_>
        <_>
          <internalNodes>
            0 -1 81 -1.3730847276747227e-03</internalNodes>
          <leafValues>
            1.8756414949893951e-01 -2.3459905385971069e-01</leafValues></_>
        <_>
          <internalNodes>
            0 -1 162 3.4197039902210236e-02</internalNodes>
          <leafValues>
            -7.5004063546657562e-02 7.0729660987854004e-01</leafValues></_>
        <_>
          <internalNodes>
            0 -1 207 -4.3362524593248963e-04</internalNodes>
          <leafValues>
            2.8444927930831909e-01 -1.7490665614604950e-01</leafValues></_>
        <_>
          <internalNodes>
            0 -1 176 8.0933932622428983e-05</internalNodes>
          <leafValues>
            1.3668373227119446e-01 -3.5331112146377563e-01</leafValues></_>
        <_>
          <internalNodes>
            0 -1 103 4.8858998343348503e-03</internalNodes>
          <leafValues>
            -1.6000452637672424e-01 3.0902588367462158e-01</leafValues></_>
        <_>
          <internalNodes>
            0 -1 51 9.1423206031322479e-03</internalNodes>
          <leafValues>
            -1.1034094542264938e-01 4.5560625195503235e-01</leafValues></_>
        <_>
          <internalNodes>
            0 -1 30 1.5245654503814876e-04</internalNodes>
          <leafValues>
            1.0885485261678696e-01 -4.5265680551528931e-01</leafValues></_>
        <_>
          <internalNodes>
            0 -1 99 -8.6266233120113611e-04</internalNodes>
          <leafValues>
            2.6362159848213196e-01 -1.8232813477516174e-01</leafValues></_>
        <_>
          <internalNodes>
            0 -1 179 1.3424060307443142e-04</internalNodes>
          <leafValues>
            1.1752327531576157e-01 -3.9377054572105408e-01</leafValues></_>
        <_>
          <internalNodes>
            0 -1 183 -4.5479064283426851e-05</internalNodes>
          <leafValues>
            2.1889764070510864e-01 -2.0880647003650665e-01</leafValues></_>
        <_>
          <internalNodes>
            0 -1 78 1.6258568502962589e-03</internalNodes>
          <leafValues>
            -1.5957595407962799e-01 2.9771363735198975e-01</leafValues></_></weakClassifiers></_></stages>
  <features>
    <_>
      <rects>
        <_>
          0 0 2 1 -1.</_>
        <_>
          1 0 1 1 2.</_></rects>
      <tilted>0</tilted></_>
    <_>
      <rects>
        <_>
          0 0 4 28 -1.</_>
        <_>
          0 0 2 14 2.</_>
        <_>
          2 14 2 14 2.</_></rects>
      <tilted>0</tilted></_>
    <_>
      <rects>
        <_>
          0 2 40 34 -1.</_>
        <_>
          0 19 40 17 2.</_></rects>
      <tilted>0</tilted></_>
    <_>
      <rects>
        <_>
          0 6 2 16 -1.</_>
        <_>
          0 6 1 8 2.</_>
        <_>
          1 14 1 8 2.</_></rects>
      <tilted>0</tilted></_>
    <_>
      <rects>
        <_>
          0 6 3 17 -1.</_>
        <_>
          1 6 1 17 3.</_></rects>
      <tilted>0</tilted></_>
    <_>
      <rects>
        <_>
          0 7 3 20 -1.</_>
        <_>
          1 7 1 20 3.</_></rects>
      <tilted>0</tilted></_>
    <_>
      <rects>
        <_>
          0 7 39 24 -1.</_>
        <_>
          0 19 39 12 2.</_></rects>
      <tilted>0</tilted></_>
    <_>
      <rects>
        <_>
          0 8 2 20 -1.</_>
        <_>
          0 8 1 10 2.</_>
        <_>
          1 18 1 10 2.</_></rects>
      <tilted>0</tilted></_>
    <_>
      <rects>
        <_>
          0 10 2 22 -1.</_>
        <_>
          0 10 1 11 2.</_>
        <_>
          1 21 1 11 2.</_></rects>
      <tilted>0</tilted></_>
    <_>
      <rects>
        <_>
          0 10 6 12 -1.</_>
        <_>
          0 10 3 6 2.</_>
        <_>
          3 16 3 6 2.</_></rects>
      <tilted>0</tilted></_>
    <_>
      <rects>
        <_>
          0 11 3 1 -1.</_>
        <_>
          1 11 1 1 3.</_></rects>
      <tilted>0</tilted></_>
    <_>
      <rects>
        <_>
          0 14 7 4 -1.</_>
        <_>
          0 15 7 2 2.</_></rects>
      <tilted>0</tilted></_>
    <_>
      <rects>
        <_>
          0 15 2 6 -1.</_>
        <_>
          0 15 1 3 2.</_>
        <_>
          1 18 1 3 2.</_></rects>
      <tilted>0</tilted></_>
    <_>
      <rects>
        <_>
          0 17 2 6 -1.</_>
        <_>
          0 17 1 3 2.</_>
        <_>
          1 20 1 3 2.</_></rects>
      <tilted>0</tilted></_>
    <_>
      <rects>
        <_>
          0 18 6 16 -1.</_>
        <_>
          0 18 3 8 2.</_>
        <_>
          3 26 3 8 2.</_></rects>
      <tilted>0</tilted></_>
    <_>
      <rects>
        <_>
          0 20 2 8 -1.</_>
        <_>
          0 20 1 4 2.</_>
        <_>
          1 24 1 4 2.</_></rects>
      <tilted>0</tilted></_>
    <_>
      <rects>
        <_>
          0 24 26 12 -1.</_>
        <_>
          0 24 13 6 2.</_>
        <_>
          13 30 13 6 2.</_></rects>
      <tilted>0</tilted></_>
    <_>
      <rects>
        <_>
          0 34 38 6 -1.</_>
        <_>
          0 37 38 3 2.</_></rects>
      <tilted>0</tilted></_>
    <_>
      <rects>
        <_>
          0 36 40 3 -1.</_>
        <_>
          0 37 40 1 3.</_></rects>
      <tilted>0</tilted></_>
    <_>
      <rects>
        <_>
          1 0 29 4 -1.</_>
        <_>
          1 2 29 2 2.</_></rects>
      <tilted>0</tilted></_>
    <_>
      <rects>
        <_>
          1 10 3 2 -1.</_>
        <_>
          2 10 1 2 3.</_></rects>
      <tilted>0</tilted></_>
    <_>
      <rects>
        <_>
          1 16 12 18 -1.</_>
        <_>
          4 16 6 18 2.</_></rects>
      <tilted>0</tilted></_>
    <_>
      <rects>
        <_>
          1 28 8 10 -1.</_>
        <_>
          1 28 4 5 2.</_>
        <_>
          5 33 4 5 2.</_></rects>
      <tilted>0</tilted></_>
    <_>
      <rects>
        <_>
          1 28 10 8 -1.</_>
        <_>
          1 28 5 4 2.</_>
        <_>
          6 32 5 4 2.</_></rects>
      <tilted>0</tilted></_>
    <_>
      <rects>
        <_>
          1 29 24 6 -1.</_>
        <_>
          7 29 12 6 2.</_></rects>
      <tilted>0</tilted></_>
    <_>
      <rects>
        <_>
          2 1 9 2 -1.</_>
        <_>
          5 4 3 2 3.</_></rects>
      <tilted>1</tilted></_>
    <_>
      <rects>
        <_>
          2 23 2 4 -1.</_>
        <_>
          2 23 1 2 2.</_>
        <_>
          3 25 1 2 2.</_></rects>
      <tilted>0</tilted></_>
    <_>
      <rects>
        <_>
          2 26 4 10 -1.</_>
        <_>
          2 26 2 5 2.</_>
        <_>
          4 31 2 5 2.</_></rects>
      <tilted>0</tilted></_>
    <_>
      <rects>
        <_>
          3 15 3 25 -1.</_>
        <_>
          4 15 1 25 3.</_></rects>
      <tilted>0</tilted></_>
    <_>
      <rects>
        <_>
          3 18 1 3 -1.</_>
        <_>
          3 19 1 1 3.</_></rects>
      <tilted>0</tilted></_>
    <_>
      <rects>
        <_>
          3 21 2 1 -1.</_>
        <_>
          4 21 1 1 2.</_></rects>
      <tilted>0</tilted></_>
    <_>
      <rects>
        <_>
          4 2 2 1 -1.</_>
        <_>
          5 2 1 1 2.</_></rects>
      <tilted>0</tilted></_>
    <_>
      <rects>
        <_>
          4 11 14 4 -1.</_>
        <_>
          4 11 7 2 2.</_>
        <_>
          11 13 7 2 2.</_></rects>
      <tilted>0</tilted></_>
    <_>
      <rects>
        <_>
          4 13 28 6 -1.</_>
        <_>
          4 13 14 3 2.</_>
        <_>
          18 16 14 3 2.</_></rects>
      <tilted>0</tilted></_>
    <_>
      <rects>
        <_>
          4 24 9 4 -1.</_>
        <_>
          4 24 9 2 2.</_></rects>
      <tilted>1</tilted></_>
    <_>
      <rects>
        <_>
          4 26 7 4 -1.</_>
        <_>
          3 27 7 2 2.</_></rects>
      <tilted>1</tilted></_>
    <_>
      <rects>
        <_>
          5 0 24 8 -1.</_>
        <_>
          5 0 12 4 2.</_>
        <_>
          17 4 12 4 2.</_></rects>
      <tilted>0</tilted></_>
    <_>
      <rects>
        <_>
          5 0 31 38 -1.</_>
        <_>
          5 19 31 19 2.</_></rects>
      <tilted>0</tilted></_>
    <_>
      <rects>
        <_>
          5 31 12 8 -1.</_>
        <_>
          5 31 6 4 2.</_>
        <_>
          11 35 6 4 2.</_></rects>
      <tilted>0</tilted></_>
    <_>
      <rects>
        <_>
          5 36 35 3 -1.</_>
        <_>
          5 37 35 1 3.</_></rects>
      <tilted>0</tilted></_>
    <_>
      <rects>
        <_>
          6 0 4 9 -1.</_>
        <_>
          7 0 2 9 2.</_></rects>
      <tilted>0</tilted></_>
    <_>
      <rects>
        <_>
          6 2 32 4 -1.</_>
        <_>
          6 2 16 2 2.</_>
        <_>
          22 4 16 2 2.</_></rects>
      <tilted>0</tilted></_>
    <_>
      <rects>
        <_>
          6 8 9 3 -1.</_>
        <_>
          9 11 3 3 3.</_></rects>
      <tilted>1</tilted></_>
    <_>
      <rects>
        <_>
          6 13 28 6 -1.</_>
        <_>
          6 13 14 3 2.</_>
        <_>
          20 16 14 3 2.</_></rects>
      <tilted>0</tilted></_>
    <_>
      <rects>
        <_>
          7 1 3 1 -1.</_>
        <_>
          8 1 1 1 3.</_></rects>
      <tilted>0</tilted></_>
    <_>
      <rects>
        <_>
          7 1 32 7 -1.</_>
        <_>
          15 1 16 7 2.</_></rects>
      <tilted>0</tilted></_>
    <_>
      <rects>
        <_>
          7 1 24 4 -1.</_>
        <_>
          7 1 12 2 2.</_>
        <_>
          19 3 12 2 2.</_></rects>
      <tilted>0</tilted></_>
    <_>
      <rects>
        <_>
          7 2 6 12 -1.</_>
        <_>
          9 6 2 4 9.</_></rects>
      <tilted>0</tilted></_>
    <_>
      <rects>
        <_>
          7 9 30 18 -1.</_>
        <_>
          17 15 10 6 9.</_></rects>
      <tilted>0</tilted></_>
    <_>
      <rects>
        <_>
          7 10 12 4 -1.</_>
        <_>
          7 10 6 2 2.</_>
        <_>
          13 12 6 2 2.</_></rects>
      <tilted>0</tilted></_>
    <_>
      <rects>
        <_>
          7 14 16 2 -1.</_>
        <_>
          7 14 8 1 2.</_>
        <_>
          15 15 8 1 2.</_></rects>
      <tilted>0</tilted></_>
    <_>
      <rects>
        <_>
          7 15 6 5 -1.</_>
        <_>
          9 17 2 5 3.</_></rects>
      <tilted>1</tilted></_>
    <_>
      <rects>
        <_>
          8 6 23 27 -1.</_>
        <_>
          8 15 23 9 3.</_></rects>
      <tilted>0</tilted></_>
    <_>
      <rects>
        <_>
          8 21 2 2 -1.</_>
        <_>
          9 21 1 2 2.</_></rects>
      <tilted>0</tilted></_>
    <_>
      <rects>
        <_>
          8 25 1 2 -1.</_>
        <_>
          8 26 1 1 2.</_></rects>
      <tilted>0</tilted></_>
    <_>
      <rects>
        <_>
          8 28 32 12 -1.</_>
        <_>
          8 31 32 6 2.</_></rects>
      <tilted>0</tilted></_>
    <_>
      <rects>
        <_>
          9 0 2 1 -1.</_>
        <_>
          10 0 1 1 2.</_></rects>
      <tilted>0</tilted></_>
    <_>
      <rects>
        <_>
          9 0 16 4 -1.</_>
        <_>
          9 0 8 2 2.</_>
        <_>
          17 2 8 2 2.</_></rects>
      <tilted>0</tilted></_>
    <_>
      <rects>
        <_>
          9 7 24 24 -1.</_>
        <_>
          17 15 8 8 9.</_></rects>
      <tilted>0</tilted></_>
    <_>
      <rects>
        <_>
          9 12 3 9 -1.</_>
        <_>
          9 15 3 3 3.</_></rects>
      <tilted>0</tilted></_>
    <_>
      <rects>
        <_>
          9 21 2 1 -1.</_>
        <_>
          10 21 1 1 2.</_></rects>
      <tilted>0</tilted></_>
    <_>
      <rects>
        <_>
          9 26 4 2 -1.</_>
        <_>
          9 26 2 1 2.</_>
        <_>
          11 27 2 1 2.</_></rects>
      <tilted>0</tilted></_>
    <_>
      <rects>
        <_>
          9 26 2 9 -1.</_>
        <_>
          6 29 2 3 3.</_></rects>
      <tilted>1</tilted></_>
    <_>
      <rects>
        <_>
          10 0 2 1 -1.</_>
        <_>
          11 0 1 1 2.</_></rects>
      <tilted>0</tilted></_>
    <_>
      <rects>
        <_>
          10 3 18 33 -1.</_>
        <_>
          16 14 6 11 9.</_></rects>
      <tilted>0</tilted></_>
    <_>
      <rects>
        <_>
          10 3 21 36 -1.</_>
        <_>
          10 15 21 12 3.</_></rects>
      <tilted>0</tilted></_>
    <_>
      <rects>
        <_>
          10 8 19 24 -1.</_>
        <_>
          10 16 19 8 3.</_></rects>
      <tilted>0</tilted></_>
    <_>
      <rects>
        <_>
          10 14 21 10 -1.</_>
        <_>
          17 14 7 10 3.</_></rects>
      <tilted>0</tilted></_>
    <_>
      <rects>
        <_>
          10 15 3 4 -1.</_>
        <_>
          10 17 3 2 2.</_></rects>
      <tilted>0</tilted></_>
    <_>
      <rects>
        <_>
          10 15 18 9 -1.</_>
        <_>
          16 15 6 9 3.</_></rects>
      <tilted>0</tilted></_>
    <_>
      <rects>
        <_>
          10 18 20 4 -1.</_>
        <_>
          15 18 10 4 2.</_></rects>
      <tilted>0</tilted></_>
    <_>
      <rects>
        <_>
          10 21 3 1 -1.</_>
        <_>
          11 21 1 1 3.</_></rects>
      <tilted>0</tilted></_>
    <_>
      <rects>
        <_>
          10 29 2 2 -1.</_>
        <_>
          10 30 2 1 2.</_></rects>
      <tilted>0</tilted></_>
    <_>
      <rects>
        <_>
          11 0 15 38 -1.</_>
        <_>
          11 19 15 19 2.</_></rects>
      <tilted>0</tilted></_>
    <_>
      <rects>
        <_>
          11 11 21 16 -1.</_>
        <_>
          18 11 7 16 3.</_></rects>
      <tilted>0</tilted></_>
    <_>
      <rects>
        <_>
          11 15 18 10 -1.</_>
        <_>
          17 15 6 10 3.</_></rects>
      <tilted>0</tilted></_>
    <_>
      <rects>
        <_>
          11 15 20 6 -1.</_>
        <_>
          11 17 20 2 3.</_></rects>
      <tilted>0</tilted></_>
    <_>
      <rects>
        <_>
          11 17 18 15 -1.</_>
        <_>
          11 22 18 5 3.</_></rects>
      <tilted>0</tilted></_>
    <_>
      <rects>
        <_>
          11 18 5 8 -1.</_>
        <_>
          11 20 5 4 2.</_></rects>
      <tilted>0</tilted></_>
    <_>
      <rects>
        <_>
          11 18 17 2 -1.</_>
        <_>
          11 19 17 1 2.</_></rects>
      <tilted>0</tilted></_>
    <_>
      <rects>
        <_>
          11 24 3 3 -1.</_>
        <_>
          12 25 1 1 9.</_></rects>
      <tilted>0</tilted></_>
    <_>
      <rects>
        <_>
          11 26 11 9 -1.</_>
        <_>
          11 29 11 3 3.</_></rects>
      <tilted>0</tilted></_>
    <_>
      <rects>
        <_>
          12 15 3 2 -1.</_>
        <_>
          12 16 3 1 2.</_></rects>
      <tilted>0</tilted></_>
    <_>
      <rects>
        <_>
          12 22 2 2 -1.</_>
        <_>
          13 22 1 2 2.</_></rects>
      <tilted>0</tilted></_>
    <_>
      <rects>
        <_>
          12 26 2 2 -1.</_>
        <_>
          12 26 1 1 2.</_>
        <_>
          13 27 1 1 2.</_></rects>
      <tilted>0</tilted></_>
    <_>
      <rects>
        <_>
          13 6 16 27 -1.</_>
        <_>
          13 15 16 9 3.</_></rects>
      <tilted>0</tilted></_>
    <_>
      <rects>
        <_>
          13 9 10 6 -1.</_>
        <_>
          13 9 5 3 2.</_>
        <_>
          18 12 5 3 2.</_></rects>
      <tilted>0</tilted></_>
    <_>
      <rects>
        <_>
          13 10 25 3 -1.</_>
        <_>
          12 11 25 1 3.</_></rects>
      <tilted>1</tilted></_>
    <_>
      <rects>
        <_>
          13 12 12 12 -1.</_>
        <_>
          13 18 12 6 2.</_></rects>
      <tilted>0</tilted></_>
    <_>
      <rects>
        <_>
          13 16 3 2 -1.</_>
        <_>
          13 17 3 1 2.</_></rects>
      <tilted>0</tilted></_>
    <_>
      <rects>
        <_>
          13 20 5 2 -1.</_>
        <_>
          13 21 5 1 2.</_></rects>
      <tilted>0</tilted></_>
    <_>
      <rects>
        <_>
          14 0 1 6 -1.</_>
        <_>
          14 2 1 2 3.</_></rects>
      <tilted>0</tilted></_>
    <_>
      <rects>
        <_>
          14 9 4 9 -1.</_>
        <_>
          14 12 4 3 3.</_></rects>
      <tilted>0</tilted></_>
    <_>
      <rects>
        <_>
          14 11 6 9 -1.</_>
        <_>
          16 11 2 9 3.</_></rects>
      <tilted>0</tilted></_>
    <_>
      <rects>
        <_>
          14 12 4 2 -1.</_>
        <_>
          14 12 2 1 2.</_>
        <_>
          16 13 2 1 2.</_></rects>
      <tilted>0</tilted></_>
    <_>
      <rects>
        <_>
          14 15 1 2 -1.</_>
        <_>
          14 16 1 1 2.</_></rects>
      <tilted>0</tilted></_>
    <_>
      <rects>
        <_>
          14 17 2 2 -1.</_>
        <_>
          14 18 2 1 2.</_></rects>
      <tilted>0</tilted></_>
    <_>
      <rects>
        <_>
          14 18 6 4 -1.</_>
        <_>
          14 20 6 2 2.</_></rects>
      <tilted>0</tilted></_>
    <_>
      <rects>
        <_>
          14 23 6 14 -1.</_>
        <_>
          14 23 3 7 2.</_>
        <_>
          17 30 3 7 2.</_></rects>
      <tilted>0</tilted></_>
    <_>
      <rects>
        <_>
          14 33 25 3 -1.</_>
        <_>
          14 34 25 1 3.</_></rects>
      <tilted>0</tilted></_>
    <_>
      <rects>
        <_>
          15 2 24 5 -1.</_>
        <_>
          15 2 12 5 2.</_></rects>
      <tilted>1</tilted></_>
    <_>
      <rects>
        <_>
          15 13 12 12 -1.</_>
        <_>
          19 17 4 4 9.</_></rects>
      <tilted>0</tilted></_>
    <_>
      <rects>
        <_>
          15 14 1 2 -1.</_>
        <_>
          15 15 1 1 2.</_></rects>
      <tilted>0</tilted></_>
    <_>
      <rects>
        <_>
          15 15 18 6 -1.</_>
        <_>
          15 15 9 3 2.</_>
        <_>
          24 18 9 3 2.</_></rects>
      <tilted>0</tilted></_>
    <_>
      <rects>
        <_>
          15 15 14 12 -1.</_>
        <_>
          15 18 14 6 2.</_></rects>
      <tilted>0</tilted></_>
    <_>
      <rects>
        <_>
          15 23 8 1 -1.</_>
        <_>
          17 23 4 1 2.</_></rects>
      <tilted>0</tilted></_>
    <_>
      <rects>
        <_>
          15 23 11 8 -1.</_>
        <_>
          15 27 11 4 2.</_></rects>
      <tilted>0</tilted></_>
    <_>
      <rects>
        <_>
          16 5 9 27 -1.</_>
        <_>
          16 14 9 9 3.</_></rects>
      <tilted>0</tilted></_>
    <_>
      <rects>
        <_>
          16 7 12 27 -1.</_>
        <_>
          20 16 4 9 9.</_></rects>
      <tilted>0</tilted></_>
    <_>
      <rects>
        <_>
          16 8 8 6 -1.</_>
        <_>
          16 8 4 3 2.</_>
        <_>
          20 11 4 3 2.</_></rects>
      <tilted>0</tilted></_>
    <_>
      <rects>
        <_>
          16 8 10 6 -1.</_>
        <_>
          16 8 5 3 2.</_>
        <_>
          21 11 5 3 2.</_></rects>
      <tilted>0</tilted></_>
    <_>
      <rects>
        <_>
          16 16 9 8 -1.</_>
        <_>
          16 20 9 4 2.</_></rects>
      <tilted>0</tilted></_>
    <_>
      <rects>
        <_>
          16 18 6 3 -1.</_>
        <_>
          18 18 2 3 3.</_></rects>
      <tilted>0</tilted></_>
    <_>
      <rects>
        <_>
          16 20 1 2 -1.</_>
        <_>
          16 21 1 1 2.</_></rects>
      <tilted>0</tilted></_>
    <_>
      <rects>
        <_>
          16 21 2 1 -1.</_>
        <_>
          16 21 1 1 2.</_></rects>
      <tilted>1</tilted></_>
    <_>
      <rects>
        <_>
          17 7 4 6 -1.</_>
        <_>
          17 7 2 3 2.</_>
        <_>
          19 10 2 3 2.</_></rects>
      <tilted>0</tilted></_>
    <_>
      <rects>
        <_>
          17 10 8 3 -1.</_>
        <_>
          19 10 4 3 2.</_></rects>
      <tilted>0</tilted></_>
    <_>
      <rects>
        <_>
          17 13 1 2 -1.</_>
        <_>
          17 14 1 1 2.</_></rects>
      <tilted>0</tilted></_>
    <_>
      <rects>
        <_>
          17 14 6 10 -1.</_>
        <_>
          17 19 6 5 2.</_></rects>
      <tilted>0</tilted></_>
    <_>
      <rects>
        <_>
          17 15 8 3 -1.</_>
        <_>
          17 15 4 3 2.</_></rects>
      <tilted>1</tilted></_>
    <_>
      <rects>
        <_>
          17 15 7 2 -1.</_>
        <_>
          17 16 7 1 2.</_></rects>
      <tilted>0</tilted></_>
    <_>
      <rects>
        <_>
          17 16 6 3 -1.</_>
        <_>
          19 17 2 1 9.</_></rects>
      <tilted>0</tilted></_>
    <_>
      <rects>
        <_>
          17 19 6 1 -1.</_>
        <_>
          20 19 3 1 2.</_></rects>
      <tilted>0</tilted></_>
    <_>
      <rects>
        <_>
          18 8 2 10 -1.</_>
        <_>
          18 8 1 5 2.</_>
        <_>
          19 13 1 5 2.</_></rects>
      <tilted>0</tilted></_>
    <_>
      <rects>
        <_>
          18 14 1 2 -1.</_>
        <_>
          18 15 1 1 2.</_></rects>
      <tilted>0</tilted></_>
    <_>
      <rects>
        <_>
          18 17 3 3 -1.</_>
        <_>
          19 18 1 1 9.</_></rects>
      <tilted>0</tilted></_>
    <_>
      <rects>
        <_>
          18 20 1 3 -1.</_>
        <_>
          18 21 1 1 3.</_></rects>
      <tilted>0</tilted></_>
    <_>
      <rects>
        <_>
          18 27 6 8 -1.</_>
        <_>
          18 27 3 4 2.</_>
        <_>
          21 31 3 4 2.</_></rects>
      <tilted>0</tilted></_>
    <_>
      <rects>
        <_>
          19 11 4 3 -1.</_>
        <_>
          21 11 2 3 2.</_></rects>
      <tilted>0</tilted></_>
    <_>
      <rects>
        <_>
          19 12 1 2 -1.</_>
        <_>
          19 13 1 1 2.</_></rects>
      <tilted>0</tilted></_>
    <_>
      <rects>
        <_>
          19 13 6 3 -1.</_>
        <_>
          19 13 3 3 2.</_></rects>
      <tilted>1</tilted></_>
    <_>
      <rects>
        <_>
          19 13 10 4 -1.</_>
        <_>
          19 13 5 4 2.</_></rects>
      <tilted>1</tilted></_>
    <_>
      <rects>
        <_>
          19 17 2 4 -1.</_>
        <_>
          19 19 2 2 2.</_></rects>
      <tilted>0</tilted></_>
    <_>
      <rects>
        <_>
          19 18 4 1 -1.</_>
        <_>
          20 18 2 1 2.</_></rects>
      <tilted>0</tilted></_>
    <_>
      <rects>
        <_>
          20 4 8 2 -1.</_>
        <_>
          20 5 8 1 2.</_></rects>
      <tilted>0</tilted></_>
    <_>
      <rects>
        <_>
          20 9 16 8 -1.</_>
        <_>
          20 9 8 4 2.</_>
        <_>
          28 13 8 4 2.</_></rects>
      <tilted>0</tilted></_>
    <_>
      <rects>
        <_>
          20 15 6 4 -1.</_>
        <_>
          20 15 3 4 2.</_></rects>
      <tilted>1</tilted></_>
    <_>
      <rects>
        <_>
          20 21 4 10 -1.</_>
        <_>
          20 26 4 5 2.</_></rects>
      <tilted>0</tilted></_>
    <_>
      <rects>
        <_>
          20 24 5 2 -1.</_>
        <_>
          20 25 5 1 2.</_></rects>
      <tilted>0</tilted></_>
    <_>
      <rects>
        <_>
          20 28 6 10 -1.</_>
        <_>
          20 28 3 5 2.</_>
        <_>
          23 33 3 5 2.</_></rects>
      <tilted>0</tilted></_>
    <_>
      <rects>
        <_>
          21 11 3 10 -1.</_>
        <_>
          21 11 3 5 2.</_></rects>
      <tilted>1</tilted></_>
    <_>
      <rects>
        <_>
          21 14 1 2 -1.</_>
        <_>
          21 15 1 1 2.</_></rects>
      <tilted>0</tilted></_>
    <_>
      <rects>
        <_>
          21 16 4 6 -1.</_>
        <_>
          22 16 2 6 2.</_></rects>
      <tilted>0</tilted></_>
    <_>
      <rects>
        <_>
          21 17 4 18 -1.</_>
        <_>
          21 26 4 9 2.</_></rects>
      <tilted>0</tilted></_>
    <_>
      <rects>
        <_>
          21 32 5 3 -1.</_>
        <_>
          20 33 5 1 3.</_></rects>
      <tilted>1</tilted></_>
    <_>
      <rects>
        <_>
          21 32 16 8 -1.</_>
        <_>
          21 36 16 4 2.</_></rects>
      <tilted>0</tilted></_>
    <_>
      <rects>
        <_>
          22 11 1 2 -1.</_>
        <_>
          22 12 1 1 2.</_></rects>
      <tilted>0</tilted></_>
    <_>
      <rects>
        <_>
          22 11 4 6 -1.</_>
        <_>
          22 11 2 3 2.</_>
        <_>
          24 14 2 3 2.</_></rects>
      <tilted>0</tilted></_>
    <_>
      <rects>
        <_>
          22 13 1 2 -1.</_>
        <_>
          22 14 1 1 2.</_></rects>
      <tilted>0</tilted></_>
    <_>
      <rects>
        <_>
          22 14 6 2 -1.</_>
        <_>
          22 15 6 1 2.</_></rects>
      <tilted>0</tilted></_>
    <_>
      <rects>
        <_>
          22 15 1 2 -1.</_>
        <_>
          22 16 1 1 2.</_></rects>
      <tilted>0</tilted></_>
    <_>
      <rects>
        <_>
          22 16 5 2 -1.</_>
        <_>
          22 17 5 1 2.</_></rects>
      <tilted>0</tilted></_>
    <_>
      <rects>
        <_>
          22 17 1 4 -1.</_>
        <_>
          22 17 1 2 2.</_></rects>
      <tilted>1</tilted></_>
    <_>
      <rects>
        <_>
          22 21 3 3 -1.</_>
        <_>
          22 22 3 1 3.</_></rects>
      <tilted>0</tilted></_>
    <_>
      <rects>
        <_>
          22 23 1 2 -1.</_>
        <_>
          22 24 1 1 2.</_></rects>
      <tilted>0</tilted></_>
    <_>
      <rects>
        <_>
          23 10 1 2 -1.</_>
        <_>
          23 11 1 1 2.</_></rects>
      <tilted>0</tilted></_>
    <_>
      <rects>
        <_>
          24 4 2 3 -1.</_>
        <_>
          23 5 2 1 3.</_></rects>
      <tilted>1</tilted></_>
    <_>
      <rects>
        <_>
          24 9 10 4 -1.</_>
        <_>
          24 9 5 2 2.</_>
        <_>
          29 11 5 2 2.</_></rects>
      <tilted>0</tilted></_>
    <_>
      <rects>
        <_>
          24 15 1 2 -1.</_>
        <_>
          24 16 1 1 2.</_></rects>
      <tilted>0</tilted></_>
    <_>
      <rects>
        <_>
          24 15 11 6 -1.</_>
        <_>
          24 18 11 3 2.</_></rects>
      <tilted>0</tilted></_>
    <_>
      <rects>
        <_>
          24 16 1 2 -1.</_>
        <_>
          24 17 1 1 2.</_></rects>
      <tilted>0</tilted></_>
    <_>
      <rects>
        <_>
          24 17 1 2 -1.</_>
        <_>
          24 18 1 1 2.</_></rects>
      <tilted>0</tilted></_>
    <_>
      <rects>
        <_>
          24 20 16 4 -1.</_>
        <_>
          28 24 8 4 2.</_></rects>
      <tilted>1</tilted></_>
    <_>
      <rects>
        <_>
          24 21 1 2 -1.</_>
        <_>
          24 22 1 1 2.</_></rects>
      <tilted>0</tilted></_>
    <_>
      <rects>
        <_>
          24 24 3 13 -1.</_>
        <_>
          25 25 1 13 3.</_></rects>
      <tilted>1</tilted></_>
    <_>
      <rects>
        <_>
          25 12 3 12 -1.</_>
        <_>
          25 16 3 4 3.</_></rects>
      <tilted>0</tilted></_>
    <_>
      <rects>
        <_>
          25 14 2 8 -1.</_>
        <_>
          25 14 2 4 2.</_></rects>
      <tilted>1</tilted></_>
    <_>
      <rects>
        <_>
          25 15 2 2 -1.</_>
        <_>
          25 16 2 1 2.</_></rects>
      <tilted>0</tilted></_>
    <_>
      <rects>
        <_>
          25 33 12 2 -1.</_>
        <_>
          29 33 4 2 3.</_></rects>
      <tilted>0</tilted></_>
    <_>
      <rects>
        <_>
          26 2 9 4 -1.</_>
        <_>
          29 5 3 4 3.</_></rects>
      <tilted>1</tilted></_>
    <_>
      <rects>
        <_>
          26 4 7 12 -1.</_>
        <_>
          26 4 7 6 2.</_></rects>
      <tilted>1</tilted></_>
    <_>
      <rects>
        <_>
          26 10 5 8 -1.</_>
        <_>
          26 12 5 4 2.</_></rects>
      <tilted>0</tilted></_>
    <_>
      <rects>
        <_>
          26 12 5 9 -1.</_>
        <_>
          26 15 5 3 3.</_></rects>
      <tilted>0</tilted></_>
    <_>
      <rects>
        <_>
          26 16 1 2 -1.</_>
        <_>
          26 17 1 1 2.</_></rects>
      <tilted>0</tilted></_>
    <_>
      <rects>
        <_>
          26 17 1 2 -1.</_>
        <_>
          26 18 1 1 2.</_></rects>
      <tilted>0</tilted></_>
    <_>
      <rects>
        <_>
          26 27 4 6 -1.</_>
        <_>
          27 28 2 6 2.</_></rects>
      <tilted>1</tilted></_>
    <_>
      <rects>
        <_>
          27 8 1 2 -1.</_>
        <_>
          27 9 1 1 2.</_></rects>
      <tilted>0</tilted></_>
    <_>
      <rects>
        <_>
          27 15 1 2 -1.</_>
        <_>
          27 16 1 1 2.</_></rects>
      <tilted>0</tilted></_>
    <_>
      <rects>
        <_>
          27 18 1 2 -1.</_>
        <_>
          27 19 1 1 2.</_></rects>
      <tilted>0</tilted></_>
    <_>
      <rects>
        <_>
          27 23 2 2 -1.</_>
        <_>
          27 24 2 1 2.</_></rects>
      <tilted>0</tilted></_>
    <_>
      <rects>
        <_>
          27 27 4 3 -1.</_>
        <_>
          28 27 2 3 2.</_></rects>
      <tilted>0</tilted></_>
    <_>
      <rects>
        <_>
          28 0 2 1 -1.</_>
        <_>
          29 0 1 1 2.</_></rects>
      <tilted>0</tilted></_>
    <_>
      <rects>
        <_>
          28 16 2 1 -1.</_>
        <_>
          29 16 1 1 2.</_></rects>
      <tilted>0</tilted></_>
    <_>
      <rects>
        <_>
          28 17 1 2 -1.</_>
        <_>
          28 18 1 1 2.</_></rects>
      <tilted>0</tilted></_>
    <_>
      <rects>
        <_>
          28 19 2 1 -1.</_>
        <_>
          29 19 1 1 2.</_></rects>
      <tilted>0</tilted></_>
    <_>
      <rects>
        <_>
          28 19 1 2 -1.</_>
        <_>
          28 20 1 1 2.</_></rects>
      <tilted>0</tilted></_>
    <_>
      <rects>
        <_>
          28 19 2 2 -1.</_>
        <_>
          29 19 1 2 2.</_></rects>
      <tilted>0</tilted></_>
    <_>
      <rects>
        <_>
          28 22 3 1 -1.</_>
        <_>
          29 23 1 1 3.</_></rects>
      <tilted>1</tilted></_>
    <_>
      <rects>
        <_>
          28 25 2 1 -1.</_>
        <_>
          29 25 1 1 2.</_></rects>
      <tilted>0</tilted></_>
    <_>
      <rects>
        <_>
          29 15 2 5 -1.</_>
        <_>
          30 15 1 5 2.</_></rects>
      <tilted>0</tilted></_>
    <_>
      <rects>
        <_>
          29 20 2 3 -1.</_>
        <_>
          30 20 1 3 2.</_></rects>
      <tilted>0</tilted></_>
    <_>
      <rects>
        <_>
          29 22 3 1 -1.</_>
        <_>
          30 22 1 1 3.</_></rects>
      <tilted>0</tilted></_>
    <_>
      <rects>
        <_>
          29 24 3 1 -1.</_>
        <_>
          30 25 1 1 3.</_></rects>
      <tilted>1</tilted></_>
    <_>
      <rects>
        <_>
          30 3 9 6 -1.</_>
        <_>
          33 5 3 2 9.</_></rects>
      <tilted>0</tilted></_>
    <_>
      <rects>
        <_>
          30 3 10 2 -1.</_>
        <_>
          30 3 10 1 2.</_></rects>
      <tilted>1</tilted></_>
    <_>
      <rects>
        <_>
          30 14 2 1 -1.</_>
        <_>
          31 14 1 1 2.</_></rects>
      <tilted>0</tilted></_>
    <_>
      <rects>
        <_>
          30 20 3 1 -1.</_>
        <_>
          31 20 1 1 3.</_></rects>
      <tilted>0</tilted></_>
    <_>
      <rects>
        <_>
          30 21 4 3 -1.</_>
        <_>
          30 21 2 3 2.</_></rects>
      <tilted>1</tilted></_>
    <_>
      <rects>
        <_>
          30 22 3 2 -1.</_>
        <_>
          31 22 1 2 3.</_></rects>
      <tilted>0</tilted></_>
    <_>
      <rects>
        <_>
          30 22 3 3 -1.</_>
        <_>
          31 22 1 3 3.</_></rects>
      <tilted>0</tilted></_>
    <_>
      <rects>
        <_>
          30 26 2 2 -1.</_>
        <_>
          30 26 1 1 2.</_>
        <_>
          31 27 1 1 2.</_></rects>
      <tilted>0</tilted></_>
    <_>
      <rects>
        <_>
          30 28 2 1 -1.</_>
        <_>
          31 28 1 1 2.</_></rects>
      <tilted>0</tilted></_>
    <_>
      <rects>
        <_>
          31 1 9 2 -1.</_>
        <_>
          31 1 9 1 2.</_></rects>
      <tilted>1</tilted></_>
    <_>
      <rects>
        <_>
          31 20 2 1 -1.</_>
        <_>
          32 20 1 1 2.</_></rects>
      <tilted>0</tilted></_>
    <_>
      <rects>
        <_>
          31 33 3 6 -1.</_>
        <_>
          32 33 1 6 3.</_></rects>
      <tilted>0</tilted></_>
    <_>
      <rects>
        <_>
          32 0 2 1 -1.</_>
        <_>
          33 0 1 1 2.</_></rects>
      <tilted>0</tilted></_>
    <_>
      <rects>
        <_>
          32 0 8 4 -1.</_>
        <_>
          31 1 8 2 2.</_></rects>
      <tilted>1</tilted></_>
    <_>
      <rects>
        <_>
          32 3 3 4 -1.</_>
        <_>
          33 4 1 4 3.</_></rects>
      <tilted>1</tilted></_>
    <_>
      <rects>
        <_>
          32 21 3 2 -1.</_>
        <_>
          33 22 1 2 3.</_></rects>
      <tilted>1</tilted></_>
    <_>
      <rects>
        <_>
          32 24 1 2 -1.</_>
        <_>
          32 25 1 1 2.</_></rects>
      <tilted>0</tilted></_>
    <_>
      <rects>
        <_>
          32 27 3 1 -1.</_>
        <_>
          33 28 1 1 3.</_></rects>
      <tilted>1</tilted></_>
    <_>
      <rects>
        <_>
          32 28 8 6 -1.</_>
        <_>
          32 28 4 3 2.</_>
        <_>
          36 31 4 3 2.</_></rects>
      <tilted>0</tilted></_>
    <_>
      <rects>
        <_>
          33 1 7 4 -1.</_>
        <_>
          33 1 7 2 2.</_></rects>
      <tilted>1</tilted></_>
    <_>
      <rects>
        <_>
          33 30 7 3 -1.</_>
        <_>
          32 31 7 1 3.</_></rects>
      <tilted>1</tilted></_>
    <_>
      <rects>
        <_>
          34 0 4 1 -1.</_>
        <_>
          35 0 2 1 2.</_></rects>
      <tilted>0</tilted></_>
    <_>
      <rects>
        <_>
          34 0 2 2 -1.</_>
        <_>
          35 0 1 2 2.</_></rects>
      <tilted>0</tilted></_>
    <_>
      <rects>
        <_>
          34 2 6 32 -1.</_>
        <_>
          34 2 3 16 2.</_>
        <_>
          37 18 3 16 2.</_></rects>
      <tilted>0</tilted></_>
    <_>
      <rects>
        <_>
          34 18 2 1 -1.</_>
        <_>
          35 18 1 1 2.</_></rects>
      <tilted>0</tilted></_>
    <_>
      <rects>
        <_>
          35 0 5 6 -1.</_>
        <_>
          33 2 5 2 3.</_></rects>
      <tilted>1</tilted></_>
    <_>
      <rects>
        <_>
          35 3 3 4 -1.</_>
        <_>
          34 4 3 2 2.</_></rects>
      <tilted>1</tilted></_>
    <_>
      <rects>
        <_>
          35 23 4 10 -1.</_>
        <_>
          35 23 2 5 2.</_>
        <_>
          37 28 2 5 2.</_></rects>
      <tilted>0</tilted></_>
    <_>
      <rects>
        <_>
          36 6 4 20 -1.</_>
        <_>
          36 6 2 10 2.</_>
        <_>
          38 16 2 10 2.</_></rects>
      <tilted>0</tilted></_>
    <_>
      <rects>
        <_>
          36 7 4 16 -1.</_>
        <_>
          36 7 2 8 2.</_>
        <_>
          38 15 2 8 2.</_></rects>
      <tilted>0</tilted></_>
    <_>
      <rects>
        <_>
          36 12 4 14 -1.</_>
        <_>
          38 12 2 14 2.</_></rects>
      <tilted>0</tilted></_>
    <_>
      <rects>
        <_>
          36 13 4 22 -1.</_>
        <_>
          36 13 2 11 2.</_>
        <_>
          38 24 2 11 2.</_></rects>
      <tilted>0</tilted></_>
    <_>
      <rects>
        <_>
          37 0 2 1 -1.</_>
        <_>
          38 0 1 1 2.</_></rects>
      <tilted>0</tilted></_>
    <_>
      <rects>
        <_>
          37 11 3 27 -1.</_>
        <_>
          38 11 1 27 3.</_></rects>
      <tilted>0</tilted></_>
    <_>
      <rects>
        <_>
          37 12 3 2 -1.</_>
        <_>
          38 12 1 2 3.</_></rects>
      <tilted>0</tilted></_>
    <_>
      <rects>
        <_>
          37 13 3 2 -1.</_>
        <_>
          38 13 1 2 3.</_></rects>
      <tilted>0</tilted></_>
    <_>
      <rects>
        <_>
          37 14 3 19 -1.</_>
        <_>
          38 14 1 19 3.</_></rects>
      <tilted>0</tilted></_>
    <_>
      <rects>
        <_>
          37 23 3 15 -1.</_>
        <_>
          38 28 1 5 9.</_></rects>
      <tilted>0</tilted></_>
    <_>
      <rects>
        <_>
          38 0 2 1 -1.</_>
        <_>
          39 0 1 1 2.</_></rects>
      <tilted>0</tilted></_>
    <_>
      <rects>
        <_>
          38 4 2 1 -1.</_>
        <_>
          39 4 1 1 2.</_></rects>
      <tilted>0</tilted></_>
    <_>
      <rects>
        <_>
          38 6 2 18 -1.</_>
        <_>
          38 6 1 9 2.</_>
        <_>
          39 15 1 9 2.</_></rects>
      <tilted>0</tilted></_>
    <_>
      <rects>
        <_>
          38 10 2 16 -1.</_>
        <_>
          38 10 1 8 2.</_>
        <_>
          39 18 1 8 2.</_></rects>
      <tilted>0</tilted></_>
    <_>
      <rects>
        <_>
          38 12 2 8 -1.</_>
        <_>
          38 12 1 4 2.</_>
        <_>
          39 16 1 4 2.</_></rects>
      <tilted>0</tilted></_>
    <_>
      <rects>
        <_>
          38 12 2 12 -1.</_>
        <_>
          38 12 1 6 2.</_>
        <_>
          39 18 1 6 2.</_></rects>
      <tilted>0</tilted></_>
    <_>
      <rects>
        <_>
          38 12 2 8 -1.</_>
        <_>
          39 12 1 8 2.</_></rects>
      <tilted>0</tilted></_>
    <_>
      <rects>
        <_>
          38 12 2 12 -1.</_>
        <_>
          39 12 1 12 2.</_></rects>
      <tilted>0</tilted></_>
    <_>
      <rects>
        <_>
          38 13 2 16 -1.</_>
        <_>
          38 13 1 8 2.</_>
        <_>
          39 21 1 8 2.</_></rects>
      <tilted>0</tilted></_>
    <_>
      <rects>
        <_>
          38 23 2 6 -1.</_>
        <_>
          38 23 1 3 2.</_>
        <_>
          39 26 1 3 2.</_></rects>
      <tilted>0</tilted></_></features></cascade>
</opencv_storage>
